digraph Tree {
node [shape=box, style="rounded", color="black", fontname=helvetica] ;
edge [fontname=helvetica] ;
0 [label="country_USA <= 0.5\nmse = 274344355834.1\nsamples = 904\nvalue = 16616.2"] ;
1 [label="Population, total <= 1050992480.0\nmse = 201227231630.0\nsamples = 900\nvalue = -875.0"] ;
0 -> 1 [labeldistance=2.5, labelangle=45, headlabel="True"] ;
2 [label="tas <= -2.9\nmse = 181435533742.2\nsamples = 894\nvalue = 9365.2"] ;
1 -> 2 ;
3 [label="mse = 452078531783.0\nsamples = 6\nvalue = 1508959.9"] ;
2 -> 3 ;
4 [label="mse = 165016538706.0\nsamples = 888\nvalue = -351.4"] ;
2 -> 4 ;
5 [label="tas <= 6.8\nmse = 439312006737.5\nsamples = 6\nvalue = -1790341.4"] ;
1 -> 5 ;
6 [label="mse = 0.0\nsamples = 1\nvalue = -779982.0"] ;
5 -> 6 ;
7 [label="mse = 132048868249.8\nsamples = 5\nvalue = -2127127.8"] ;
5 -> 7 ;
8 [label="Population growth (annual %25) <= 0.9\nmse = 2556257157073.0\nsamples = 4\nvalue = 3529838.9"] ;
0 -> 8 [labeldistance=2.5, labelangle=-45, headlabel="False"] ;
9 [label="Population, total <= 306396048.0\nmse = 48472524800.0\nsamples = 2\nvalue = 5273076.0"] ;
8 -> 9 ;
10 [label="mse = 0.0\nsamples = 1\nvalue = 5428756.0"] ;
9 -> 10 ;
11 [label="mse = 0.0\nsamples = 1\nvalue = 4961716.0"] ;
9 -> 11 ;
12 [label="Arable land (%25 of land area) <= 20.0\nmse = 448571227467.0\nsamples = 2\nvalue = 2222411.0"] ;
8 -> 12 ;
13 [label="mse = 0.0\nsamples = 1\nvalue = 1835728.0"] ;
12 -> 13 ;
14 [label="mse = 0.0\nsamples = 1\nvalue = 3382460.0"] ;
12 -> 14 ;
}